1403636580.963556 -0.003103 0.024618 0.079755 
1403636581.063555 -0.003213 0.026145 0.079986 
1403636581.213556 -0.003234 0.023543 0.079639 
1403636581.363556 -0.002880 0.024150 0.080052 
1403636581.513556 -0.003029 0.023989 0.080367 
1403636581.663556 -0.002706 0.022758 0.080160 
1403636581.813555 -0.003502 0.021633 0.079407 
1403636581.963556 -0.003101 0.021490 0.079566 
1403636582.163556 -0.003323 0.020905 0.079470 
1403636582.363556 -0.003344 0.020165 0.078986 
1403636582.563555 -0.003204 0.020823 0.079238 
1403636582.713556 -0.003151 0.021857 0.079345 
1403636582.913555 -0.002821 0.021878 0.079833 
1403636583.063555 -0.003069 0.022380 0.079973 
1403636583.213556 -0.003009 0.022912 0.080042 
1403636583.363556 -0.003084 0.022795 0.080000 
1403636583.563555 -0.003125 0.022326 0.079771 
1403636583.713556 -0.003599 0.021791 0.079263 
1403636583.913555 -0.003631 0.021603 0.079280 
1403636584.063555 -0.003555 0.021333 0.079306 
1403636584.213556 -0.003474 0.021298 0.079235 
1403636584.413555 -0.003415 0.021440 0.079242 
1403636584.613555 -0.003439 0.021968 0.079248 
1403636584.813555 -0.003503 0.022239 0.079334 
1403636585.013556 -0.003520 0.022531 0.079608 
1403636585.213556 -0.003679 0.022579 0.079740 
1403636585.413555 -0.003756 0.022404 0.079672 
1403636585.613555 -0.003739 0.022158 0.079518 
1403636585.763556 -0.003735 0.022032 0.079207 
1403636585.913555 -0.003673 0.022007 0.079247 
1403636586.113555 -0.003547 0.021845 0.079259 
1403636586.313555 -0.003636 0.021787 0.079238 
1403636586.563555 -0.003524 0.021801 0.079221 
1403636586.763556 -0.003565 0.021679 0.079183 
1403636586.963556 -0.003638 0.021930 0.079271 
1403636587.163556 -0.003548 0.021954 0.079252 
1403636587.363556 -0.003593 0.021936 0.079253 
1403636587.613555 -0.003714 0.021870 0.079302 
1403636587.763556 -0.003798 0.021791 0.079192 
1403636588.013556 -0.003786 0.021825 0.079202 
1403636588.263556 -0.003904 0.021852 0.079178 
1403636588.413555 -0.003619 0.021858 0.079167 
1403636588.563555 -0.003645 0.021819 0.079151 
1403636588.813555 -0.003681 0.021812 0.079207 
1403636589.063555 -0.003590 0.021787 0.079293 
1403636589.313555 -0.003492 0.021779 0.079265 
1403636589.513556 -0.003476 0.021766 0.079313 
1403636589.763556 -0.003388 0.021813 0.079338 
1403636589.913555 -0.003500 0.021674 0.079326 
1403636590.063555 -0.003470 0.021671 0.079390 
1403636590.313555 -0.003435 0.021705 0.079230 
1403636590.563555 -0.003426 0.021749 0.079213 
1403636590.813555 -0.003450 0.021742 0.079239 
1403636591.013556 -0.003502 0.021641 0.079250 
1403636591.313555 -0.003463 0.021633 0.079236 
1403636591.513556 -0.003395 0.021534 0.079330 
1403636591.813555 -0.003324 0.021474 0.079381 
1403636592.013556 -0.003281 0.021549 0.079374 
1403636592.213556 -0.003351 0.021550 0.079300 
1403636592.413555 -0.003354 0.021608 0.079284 
1403636592.663556 -0.003373 0.021566 0.079353 
1403636592.913555 -0.003353 0.021613 0.079417 
1403636593.163556 -0.003232 0.021612 0.079444 
1403636593.413555 -0.003299 0.021582 0.079277 
1403636593.663556 -0.003313 0.021551 0.079255 
1403636593.913555 -0.003052 0.021467 0.079249 
1403636594.113555 -0.003210 0.021395 0.079255 
1403636594.313555 -0.003167 0.021367 0.079311 
1403636594.563555 -0.003254 0.021381 0.079232 
1403636594.813555 -0.003328 0.021407 0.079223 
1403636595.063555 -0.003408 0.021551 0.079220 
1403636595.313555 -0.003231 0.021496 0.079295 
1403636595.563555 -0.003252 0.021465 0.079294 
1403636595.813555 -0.003132 0.021404 0.079294 
1403636596.063555 -0.003148 0.021379 0.079177 
