1403636580.963556 -0.507200 -1.755042 -0.831756 
1403636581.063555 -0.456573 0.198686 -0.843992 
1403636581.213556 0.229939 1.387400 0.625077 
1403636581.363556 -0.213409 0.236816 -0.427315 
1403636581.513556 -0.220405 -0.260574 -0.406039 
1403636581.663556 -0.201613 -0.149814 -0.373395 
1403636581.813555 -0.194333 0.182846 -0.391853 
1403636581.963556 -0.310335 0.442931 -0.698762 
1403636582.163556 -0.357202 0.508919 -0.823109 
1403636582.363556 -0.377067 0.123042 -0.872878 
1403636582.563555 -0.385667 0.099147 -0.899148 
1403636582.713556 -0.301944 0.137043 -0.659105 
1403636582.913555 -0.314308 0.379853 -0.669653 
1403636583.063555 -0.222640 0.403770 -0.461343 
1403636583.213556 -0.400673 0.213687 -0.904285 
1403636583.363556 -0.438689 0.083998 -0.997103 
1403636583.563555 -0.415398 -0.155764 -0.935671 
1403636583.713556 -0.358701 -0.159620 -0.792629 
1403636583.913555 -0.360307 -0.189628 -0.794633 
1403636584.063555 -0.274134 -0.020785 -0.588756 
1403636584.213556 -0.265909 0.037496 -0.571230 
1403636584.413555 -0.272943 -0.046971 -0.588326 
1403636584.613555 -0.270112 -0.031502 -0.581549 
1403636584.813555 -0.260116 -0.045049 -0.556722 
1403636585.013556 -0.264174 0.091521 -0.579443 
1403636585.213556 -0.269236 0.169237 -0.608055 
1403636585.413555 -0.274914 0.140715 -0.624551 
1403636585.613555 -0.225221 -0.007681 -0.486164 
1403636585.763556 -0.223263 -0.015051 -0.471782 
1403636585.913555 -0.204848 -0.021940 -0.418520 
1403636586.113555 -0.217061 -0.038282 -0.436705 
1403636586.313555 -0.200541 0.183584 -0.381611 
1403636586.563555 -0.147623 0.200578 -0.229478 
1403636586.763556 -0.119338 0.196582 -0.152957 
1403636586.963556 -0.109833 0.270103 -0.133618 
1403636587.163556 -0.100766 0.273194 -0.109311 
1403636587.363556 -0.089954 0.261314 -0.082295 
1403636587.613555 -0.080976 0.263157 -0.058229 
1403636587.763556 -0.072619 0.182684 -0.032699 
1403636588.013556 -0.066124 0.230048 -0.015351 
1403636588.263556 -0.059939 0.209667 0.005526 
1403636588.413555 -0.061743 0.152859 0.006833 
1403636588.563555 -0.061848 0.170217 0.006029 
1403636588.813555 -0.061407 0.148882 0.006232 
1403636589.063555 -0.059728 0.139078 0.010635 
1403636589.313555 -0.046390 0.090385 0.043915 
1403636589.513556 -0.046054 0.092082 0.044758 
1403636589.763556 -0.045856 0.092733 0.045246 
1403636589.913555 -0.045748 0.090115 0.045567 
1403636590.063555 -0.045821 0.106511 0.044658 
1403636590.313555 -0.041941 0.129250 0.053295 
1403636590.563555 -0.041936 0.137162 0.053187 
1403636590.813555 -0.040209 0.166892 0.057466 
1403636591.013556 -0.039998 0.159989 0.057802 
1403636591.313555 -0.039867 0.160683 0.058179 
1403636591.513556 -0.039502 0.157923 0.059460 
1403636591.813555 -0.039326 0.157441 0.059948 
1403636592.013556 -0.038462 0.178180 0.062405 
1403636592.213556 -0.038444 0.178241 0.062432 
1403636592.413555 -0.037984 0.172102 0.063736 
1403636592.663556 -0.037380 0.181118 0.064676 
1403636592.913555 -0.036407 0.177518 0.066992 
1403636593.163556 -0.036182 0.179447 0.067461 
1403636593.413555 -0.033921 0.150290 0.072627 
1403636593.663556 -0.034798 0.169307 0.070333 
1403636593.913555 -0.036008 0.194124 0.067126 
1403636594.113555 -0.036505 0.192437 0.066128 
1403636594.313555 -0.036875 0.184461 0.065654 
1403636594.563555 -0.034725 0.161114 0.070979 
1403636594.813555 -0.035389 0.173554 0.069214 
1403636595.063555 -0.031812 0.144182 0.078319 
1403636595.313555 -0.031432 0.143316 0.078269 
1403636595.563555 -0.029452 0.120916 0.083703 
1403636595.813555 -0.029927 0.145112 0.081535 
1403636596.063555 -0.026145 0.128669 0.089695 
